<?xml version="1.0"?>
<opencv_storage>
<cascade>
  <stageType>BOOST</stageType>
  <featureType>HAAR</featureType>
  <height>24</height>
  <width>36</width>
  <stageParams>
    <boostType>GAB</boostType>
    <minHitRate>9.9500000476837158e-01</minHitRate>
    <maxFalseAlarm>5.0000000000000000e-01</maxFalseAlarm>
    <weightTrimRate>9.4999998807907104e-01</weightTrimRate>
    <maxDepth>1</maxDepth>
    <maxWeakCount>100</maxWeakCount></stageParams>
  <featureParams>
    <maxCatCount>0</maxCatCount>
    <featSize>1</featSize>
    <mode>BASIC</mode></featureParams>
  <stageNum>15</stageNum>
  <stages>
    <!-- stage 0 -->
    <_>
      <maxWeakCount>2</maxWeakCount>
      <stageThreshold>1.3499315083026886e-01</stageThreshold>
      <weakClassifiers>
        <_>
          <internalNodes>
            0 -1 6 -2.0225790649419650e-05</internalNodes>
          <leafValues>
            -5.7142859697341919e-01 1.</leafValues></_>
        <_>
          <internalNodes>
            0 -1 7 9.6455332823097706e-05</internalNodes>
          <leafValues>
            8.8306659460067749e-01 -8.6500686407089233e-01</leafValues></_></weakClassifiers></_>
    <!-- stage 1 -->
    <_>
      <maxWeakCount>2</maxWeakCount>
      <stageThreshold>3.3333334326744080e-01</stageThreshold>
      <weakClassifiers>
        <_>
          <internalNodes>
            0 -1 0 -1.7699339659884572e-03</internalNodes>
          <leafValues>
            -6.6666668653488159e-01 9.4736844301223755e-01</leafValues></_>
        <_>
          <internalNodes>
            0 -1 4 -3.0788269941695035e-04</internalNodes>
          <leafValues>
            -5.9825456142425537e-01 1.</leafValues></_></weakClassifiers></_>
    <!-- stage 2 -->
    <_>
      <maxWeakCount>2</maxWeakCount>
      <stageThreshold>1.8181818723678589e-01</stageThreshold>
      <weakClassifiers>
        <_>
          <internalNodes>
            0 -1 15 -6.8393757101148367e-04</internalNodes>
          <leafValues>
            -8.1818181276321411e-01 9.4871795177459717e-01</leafValues></_>
        <_>
          <internalNodes>
            0 -1 12 2.0522242994047701e-04</internalNodes>
          <leafValues>
            1. -7.1514248847961426e-01</leafValues></_></weakClassifiers></_>
    <!-- stage 3 -->
    <_>
      <maxWeakCount>2</maxWeakCount>
      <stageThreshold>-4.0099429897964001e-03</stageThreshold>
      <weakClassifiers>
        <_>
          <internalNodes>
            0 -1 5 4.5414915803121403e-05</internalNodes>
          <leafValues>
            8.9999997615814209e-01 -8.0000001192092896e-01</leafValues></_>
        <_>
          <internalNodes>
            0 -1 22 1.6861970652826130e-04</internalNodes>
          <leafValues>
            9.0106850862503052e-01 -9.0400993824005127e-01</leafValues></_></weakClassifiers></_>
    <!-- stage 4 -->
    <_>
      <maxWeakCount>1</maxWeakCount>
      <stageThreshold>8.5714286565780640e-01</stageThreshold>
      <weakClassifiers>
        <_>
          <internalNodes>
            0 -1 14 5.3791335085406899e-04</internalNodes>
          <leafValues>
            8.5714286565780640e-01 -1.</leafValues></_></weakClassifiers></_>
    <!-- stage 5 -->
    <_>
      <maxWeakCount>2</maxWeakCount>
      <stageThreshold>1.4684009552001953e-01</stageThreshold>
      <weakClassifiers>
        <_>
          <internalNodes>
            0 -1 8 9.5249532023444772e-05</internalNodes>
          <leafValues>
            8.9999997615814209e-01 -8.0000001192092896e-01</leafValues></_>
        <_>
          <internalNodes>
            0 -1 24 1.8054466636385769e-04</internalNodes>
          <leafValues>
            9.4684010744094849e-01 -7.4938035011291504e-01</leafValues></_></weakClassifiers></_>
    <!-- stage 6 -->
    <_>
      <maxWeakCount>1</maxWeakCount>
      <stageThreshold>9.4999998807907104e-01</stageThreshold>
      <weakClassifiers>
        <_>
          <internalNodes>
            0 -1 20 -6.5877116867341101e-05</internalNodes>
          <leafValues>
            -1. 9.4999998807907104e-01</leafValues></_></weakClassifiers></_>
    <!-- stage 7 -->
    <_>
      <maxWeakCount>2</maxWeakCount>
      <stageThreshold>6.5300233662128448e-02</stageThreshold>
      <weakClassifiers>
        <_>
          <internalNodes>
            0 -1 1 4.4392333365976810e-03</internalNodes>
          <leafValues>
            1. -8.3333331346511841e-01</leafValues></_>
        <_>
          <internalNodes>
            0 -1 3 1.4487326145172119e-02</internalNodes>
          <leafValues>
            8.9863353967666626e-01 -1.</leafValues></_></weakClassifiers></_>
    <!-- stage 8 -->
    <_>
      <maxWeakCount>2</maxWeakCount>
      <stageThreshold>8.3019085228443146e-02</stageThreshold>
      <weakClassifiers>
        <_>
          <internalNodes>
            0 -1 11 -8.8533852249383926e-05</internalNodes>
          <leafValues>
            -8.1818181276321411e-01 9.4871795177459717e-01</leafValues></_>
        <_>
          <internalNodes>
            0 -1 19 -1.7165648750960827e-04</internalNodes>
          <leafValues>
            -1. 9.0120089054107666e-01</leafValues></_></weakClassifiers></_>
    <!-- stage 9 -->
    <_>
      <maxWeakCount>2</maxWeakCount>
      <stageThreshold>1.3499315083026886e-01</stageThreshold>
      <weakClassifiers>
        <_>
          <internalNodes>
            0 -1 16 -9.7041192930191755e-05</internalNodes>
          <leafValues>
            -5.7142859697341919e-01 1.</leafValues></_>
        <_>
          <internalNodes>
            0 -1 23 -5.5400101700797677e-05</internalNodes>
          <leafValues>
            -8.6500686407089233e-01 8.8306659460067749e-01</leafValues></_></weakClassifiers></_>
    <!-- stage 10 -->
    <_>
      <maxWeakCount>1</maxWeakCount>
      <stageThreshold>9.0243899822235107e-01</stageThreshold>
      <weakClassifiers>
        <_>
          <internalNodes>
            0 -1 21 -2.7671415591612458e-04</internalNodes>
          <leafValues>
            -1. 9.0243899822235107e-01</leafValues></_></weakClassifiers></_>
    <!-- stage 11 -->
    <_>
      <maxWeakCount>2</maxWeakCount>
      <stageThreshold>2.2556702792644501e-01</stageThreshold>
      <weakClassifiers>
        <_>
          <internalNodes>
            0 -1 2 -1.2551431427709758e-04</internalNodes>
          <leafValues>
            -6.6666668653488159e-01 9.4736844301223755e-01</leafValues></_>
        <_>
          <internalNodes>
            0 -1 26 -2.5646510039223358e-05</internalNodes>
          <leafValues>
            -7.2180140018463135e-01 9.4163304567337036e-01</leafValues></_></weakClassifiers></_>
    <!-- stage 12 -->
    <_>
      <maxWeakCount>2</maxWeakCount>
      <stageThreshold>1.3499315083026886e-01</stageThreshold>
      <weakClassifiers>
        <_>
          <internalNodes>
            0 -1 17 -2.0321023839642294e-05</internalNodes>
          <leafValues>
            -5.7142859697341919e-01 1.</leafValues></_>
        <_>
          <internalNodes>
            0 -1 18 9.1754144523292780e-04</internalNodes>
          <leafValues>
            8.8306659460067749e-01 -8.6500686407089233e-01</leafValues></_></weakClassifiers></_>
    <!-- stage 13 -->
    <_>
      <maxWeakCount>3</maxWeakCount>
      <stageThreshold>7.7777898311614990e-01</stageThreshold>
      <weakClassifiers>
        <_>
          <internalNodes>
            0 -1 9 1.2186219100840390e-04</internalNodes>
          <leafValues>
            8.5365855693817139e-01 -7.7777779102325439e-01</leafValues></_>
        <_>
          <internalNodes>
            0 -1 25 -3.2877959893085063e-04</internalNodes>
          <leafValues>
            -9.1280317306518555e-01 8.5725843906402588e-01</leafValues></_>
        <_>
          <internalNodes>
            0 -1 13 -1.0853160172700882e-02</internalNodes>
          <leafValues>
            -8.9084368944168091e-01 8.3692365884780884e-01</leafValues></_></weakClassifiers></_>
    <!-- stage 14 -->
    <_>
      <maxWeakCount>1</maxWeakCount>
      <stageThreshold>1.</stageThreshold>
      <weakClassifiers>
        <_>
          <internalNodes>
            0 -1 10 -3.6790668964385986e-03</internalNodes>
          <leafValues>
            -1. 1.</leafValues></_></weakClassifiers></_></stages>
  <features>
    <_>
      <rects>
        <_>
          0 0 1 22 -1.</_>
        <_>
          0 11 1 11 2.</_></rects>
      <tilted>0</tilted></_>
    <_>
      <rects>
        <_>
          0 0 32 1 -1.</_>
        <_>
          16 0 16 1 2.</_></rects>
      <tilted>0</tilted></_>
    <_>
      <rects>
        <_>
          0 4 6 1 -1.</_>
        <_>
          2 4 2 1 3.</_></rects>
      <tilted>0</tilted></_>
    <_>
      <rects>
        <_>
          0 5 34 1 -1.</_>
        <_>
          17 5 17 1 2.</_></rects>
      <tilted>0</tilted></_>
    <_>
      <rects>
        <_>
          0 12 1 10 -1.</_>
        <_>
          0 17 1 5 2.</_></rects>
      <tilted>0</tilted></_>
    <_>
      <rects>
        <_>
          0 21 4 2 -1.</_>
        <_>
          0 21 2 1 2.</_>
        <_>
          2 22 2 1 2.</_></rects>
      <tilted>0</tilted></_>
    <_>
      <rects>
        <_>
          0 22 2 1 -1.</_>
        <_>
          1 22 1 1 2.</_></rects>
      <tilted>0</tilted></_>
    <_>
      <rects>
        <_>
          1 0 4 1 -1.</_>
        <_>
          3 0 2 1 2.</_></rects>
      <tilted>0</tilted></_>
    <_>
      <rects>
        <_>
          2 2 3 1 -1.</_>
        <_>
          3 2 1 1 3.</_></rects>
      <tilted>0</tilted></_>
    <_>
      <rects>
        <_>
          7 22 6 1 -1.</_>
        <_>
          9 22 2 1 3.</_></rects>
      <tilted>0</tilted></_>
    <_>
      <rects>
        <_>
          9 22 12 2 -1.</_>
        <_>
          13 22 4 2 3.</_></rects>
      <tilted>0</tilted></_>
    <_>
      <rects>
        <_>
          9 23 2 1 -1.</_>
        <_>
          10 23 1 1 2.</_></rects>
      <tilted>0</tilted></_>
    <_>
      <rects>
        <_>
          11 23 9 1 -1.</_>
        <_>
          14 23 3 1 3.</_></rects>
      <tilted>0</tilted></_>
    <_>
      <rects>
        <_>
          14 0 1 24 -1.</_>
        <_>
          14 12 1 12 2.</_></rects>
      <tilted>0</tilted></_>
    <_>
      <rects>
        <_>
          14 0 9 1 -1.</_>
        <_>
          17 0 3 1 3.</_></rects>
      <tilted>0</tilted></_>
    <_>
      <rects>
        <_>
          15 23 9 1 -1.</_>
        <_>
          18 23 3 1 3.</_></rects>
      <tilted>0</tilted></_>
    <_>
      <rects>
        <_>
          16 23 9 1 -1.</_>
        <_>
          19 23 3 1 3.</_></rects>
      <tilted>0</tilted></_>
    <_>
      <rects>
        <_>
          18 0 6 1 -1.</_>
        <_>
          20 0 2 1 3.</_></rects>
      <tilted>0</tilted></_>
    <_>
      <rects>
        <_>
          18 23 15 1 -1.</_>
        <_>
          23 23 5 1 3.</_></rects>
      <tilted>0</tilted></_>
    <_>
      <rects>
        <_>
          20 23 4 1 -1.</_>
        <_>
          22 23 2 1 2.</_></rects>
      <tilted>0</tilted></_>
    <_>
      <rects>
        <_>
          23 23 3 1 -1.</_>
        <_>
          24 23 1 1 3.</_></rects>
      <tilted>0</tilted></_>
    <_>
      <rects>
        <_>
          28 22 6 1 -1.</_>
        <_>
          30 22 2 1 3.</_></rects>
      <tilted>0</tilted></_>
    <_>
      <rects>
        <_>
          31 20 3 3 -1.</_>
        <_>
          32 20 1 3 3.</_></rects>
      <tilted>0</tilted></_>
    <_>
      <rects>
        <_>
          31 23 3 1 -1.</_>
        <_>
          32 23 1 1 3.</_></rects>
      <tilted>0</tilted></_>
    <_>
      <rects>
        <_>
          32 22 4 2 -1.</_>
        <_>
          34 22 2 2 2.</_></rects>
      <tilted>0</tilted></_>
    <_>
      <rects>
        <_>
          34 0 2 9 -1.</_>
        <_>
          34 3 2 3 3.</_></rects>
      <tilted>0</tilted></_>
    <_>
      <rects>
        <_>
          34 2 1 2 -1.</_>
        <_>
          34 3 1 1 2.</_></rects>
      <tilted>0</tilted></_></features></cascade>
</opencv_storage>
